{"learner":{"attributes":{"best_iteration":"5","best_ntree_limit":"6","best_score":"0.5062346599051694"},"feature_names":[],"feature_types":[],"gradient_booster":{"model":{"gbtree_model_param":{"num_parallel_tree":"1","num_trees":"26","size_leaf_vector":"0"},"tree_info":[0,0,0,0,0,0,0,0,0,0,0,0,0,0,0,0,0,0,0,0,0,0,0,0,0,0],"trees":[{"base_weights":[2.153146E1,1.9239403E1,2.5188988E1],"categories":[],"categories_nodes":[],"categories_segments":[],"categories_sizes":[],"default_left":[1,0,0],"id":0,"left_children":[1,-1,-1],"loss_changes":[1.7428223E2,0E0,0E0],"parents":[2147483647,0,0],"right_children":[2,-1,-1],"split_conditions":[2.6767904E-1,7.695761E0,1.0075595E1],"split_indices":[60,0,0],"split_type":[0,0,0],"sum_hessian":[2.7E1,1.7E1,1E1],"tree_param":{"num_deleted":"0","num_feature":"168","num_nodes":"3","size_leaf_vector":"0"}},{"base_weights":[1.298593E1,1.1843696E1,1.6022594E1,1.0058486E1,1.2361589E1],"categories":[],"categories_nodes":[],"categories_segments":[],"categories_sizes":[],"default_left":[1,1,0,0,0],"id":1,"left_children":[1,3,-1,-1,-1],"loss_changes":[7.223535E1,3.9077148E0,0E0,0E0,0E0],"parents":[2147483647,0,0,1,1],"right_children":[2,4,-1,-1,-1],"split_conditions":[1.8672024E-1,3.1487146E-1,6.409038E0,4.0233946E0,4.944636E0],"split_indices":[59,58,0,0,0],"split_type":[0,0,0,0,0],"sum_hessian":[2.7E1,2E1,7E0,5E0,1.5E1],"tree_param":{"num_deleted":"0","num_feature":"168","num_nodes":"5","size_leaf_vector":"0"}},{"base_weights":[7.851252E0,9.199325E0,6.712391E0],"categories":[],"categories_nodes":[],"categories_segments":[],"categories_sizes":[],"default_left":[1,0,0],"id":2,"left_children":[1,-1,-1],"loss_changes":[3.383972E1,0E0,0E0],"parents":[2147483647,0,0],"right_children":[2,-1,-1],"split_conditions":[2.18625E1,3.67973E0,2.6849563E0],"split_indices":[45,0,0],"split_type":[0,0,0],"sum_hessian":[2.7E1,1.2E1,1.5E1],"tree_param":{"num_deleted":"0","num_feature":"168","num_nodes":"3","size_leaf_vector":"0"}},{"base_weights":[4.7357135E0,4.303509E0,6.4961324E0,4.7227416E0,3.641719E0],"categories":[],"categories_nodes":[],"categories_segments":[],"categories_sizes":[],"default_left":[1,1,0,0,0],"id":3,"left_children":[1,3,-1,-1,-1],"loss_changes":[1.6743774E1,3.5751953E0,0E0,0E0,0E0],"parents":[2147483647,0,0,1,1],"right_children":[2,4,-1,-1,-1],"split_conditions":[2.366131E-1,2.4853737E1,2.598453E0,1.8890966E0,1.4566877E0],"split_indices":[59,51,0,0,0],"split_type":[0,0,0,0,0],"sum_hessian":[2.7E1,2.2E1,5E0,1.3E1,9E0],"tree_param":{"num_deleted":"0","num_feature":"168","num_nodes":"5","size_leaf_vector":"0"}},{"base_weights":[2.8663142E0,2.4289746E0,3.5684803E0,2.5945625E0,1.8162677E0,3.1873379E0,4.2940493E0],"categories":[],"categories_nodes":[],"categories_segments":[],"categories_sizes":[],"default_left":[1,1,1,0,0,0,0],"id":4,"left_children":[1,3,5,-1,-1,-1,-1],"loss_changes":[6.855484E0,8.2257843E-1,6.763153E-1,0E0,0E0,0E0,0E0],"parents":[2147483647,0,0,1,1,2,2],"right_children":[2,4,6,-1,-1,-1,-1],"split_conditions":[7.1847565E1,5.3819446E-3,7.654976E1,1.037825E0,7.265071E-1,1.2749351E0,1.7176198E0],"split_indices":[53,133,21,0,0,0,0],"split_type":[0,0,0,0,0,0,0],"sum_hessian":[2.7E1,1.7E1,1E1,1.3E1,4E0,7E0,3E0],"tree_param":{"num_deleted":"0","num_feature":"168","num_nodes":"7","size_leaf_vector":"0"}},{"base_weights":[1.74177E0,2.089049E0,1.3470516E0,1.2832607E0,2.2033672E0,9.762439E-1,1.4376258E0,2.7993877E0,2.0477257E0],"categories":[],"categories_nodes":[],"categories_segments":[],"categories_sizes":[],"default_left":[1,1,1,0,1,1,1,1,1],"id":5,"left_children":[1,3,-1,-1,-1,-1,-1,-1,-1],"loss_changes":[3.0897903E0,6.6742706E-1,5.8237076E-2,0E0,6.4510345E-2,0E0,0E0,0E0,0E0],"parents":[2147483647,0,0,1,1,2,2,4,4],"right_children":[2,4,-1,-1,-1,-1,-1,-1,-1],"split_conditions":[2.2731619E1,1.5058659E-1,5.388207E-1,5.133043E-1,8.813469E-1,3.9049757E-1,5.750503E-1,1.1197551E0,8.190903E-1],"split_indices":[13,80,163,0,19,2147483647,2147483647,2147483647,2147483647],"split_type":[0,0,0,0,0,0,0,0,0],"sum_hessian":[2.7E1,1.4E1,1.3E1,2E0,1.2E1,3E0,1E1,2E0,1E1],"tree_param":{"num_deleted":"4","num_feature":"168","num_nodes":"9","size_leaf_vector":"0"}},{"base_weights":[1.0551485E0,1.9600089E0,9.7125524E-1,4.5480496E-1,1.0347787E0,1.0890596E0,7.455199E-1],"categories":[],"categories_nodes":[],"categories_segments":[],"categories_sizes":[],"default_left":[1,0,1,0,1,1,1],"id":6,"left_children":[1,-1,3,-1,-1,-1,-1],"loss_changes":[1.5737152E0,0E0,6.2742996E-1,0E0,8.234787E-2,0E0,0E0],"parents":[2147483647,0,0,2,2,4,4],"right_children":[2,-1,4,-1,-1,-1,-1],"split_conditions":[1.9002453E1,7.8400356E-1,-3.9136904E-1,1.8192199E-1,4.139115E-1,4.3562385E-1,2.9820797E-1],"split_indices":[19,0,163,0,5,2147483647,2147483647],"split_type":[0,0,0,0,0,0,0],"sum_hessian":[2.7E1,2E0,2.5E1,3E0,2.2E1,1.8E1,4E0],"tree_param":{"num_deleted":"2","num_feature":"168","num_nodes":"7","size_leaf_vector":"0"}},{"base_weights":[6.4113235E-1,5.311469E-1,9.9467015E-1,2.8491494E-1,5.996356E-1,1.4981481E0,8.4696573E-1,4.003039E-2,3.192763E-1,8.856666E-1,5.456903E-1],"categories":[],"categories_nodes":[],"categories_segments":[],"categories_sizes":[],"default_left":[1,1,1,1,1,1,1,1,1,1,1],"id":7,"left_children":[1,3,-1,-1,-1,-1,-1,-1,-1,-1,-1],"loss_changes":[8.4834385E-1,2.5029325E-1,9.2232704E-2,5.7055354E-3,5.695772E-2,0E0,0E0,0E0,0E0,0E0,0E0],"parents":[2147483647,0,0,1,1,2,2,3,3,4,4],"right_children":[2,4,-1,-1,-1,-1,-1,-1,-1,-1,-1],"split_conditions":[2.522361E-1,2.999894E-1,3.9786807E-1,1.1396598E-1,2.3985425E-1,5.9925926E-1,3.387863E-1,1.6012156E-2,1.2771052E-1,3.5426664E-1,2.1827613E-1],"split_indices":[27,46,0,13,99,2147483647,2147483647,2147483647,2147483647,2147483647,2147483647],"split_type":[0,0,0,0,0,0,0,0,0,0,0],"sum_hessian":[2.7E1,2.1E1,6E0,5E0,1.6E1,1E0,5E0,1E0,4E0,2E0,1.4E1],"tree_param":{"num_deleted":"6","num_feature":"168","num_nodes":"11","size_leaf_vector":"0"}},{"base_weights":[3.9040506E-1,9.4504786E-1,3.3846122E-1,3.8870108E-1,1.5921083E-1,1.8683968E-1,4.1894335E-1,-0E0,1.8453306E-1,2.5219393E-1,4.637184E-1],"categories":[],"categories_nodes":[],"categories_segments":[],"categories_sizes":[],"default_left":[1,0,1,1,1,1,1,1,1,1,1],"id":8,"left_children":[1,-1,3,-1,-1,-1,-1,-1,-1,-1,-1],"loss_changes":[6.204214E-1,0E0,1.6505861E-1,4.8194885E-2,1.904416E-2,0E0,3.692007E-2,0E0,0E0,0E0,0E0],"parents":[2147483647,0,0,2,2,3,3,4,4,6,6],"right_children":[2,-1,4,-1,-1,-1,-1,-1,-1,-1,-1],"split_conditions":[1.8982811E1,3.7801915E-1,1.8999975E1,1.5548043E-1,6.368434E-2,7.473587E-2,1.6757734E-1,-0E0,7.381322E-2,1.00877576E-1,1.8548737E-1],"split_indices":[39,0,5,142,5,2147483647,2147483647,2147483647,2147483647,2147483647,2147483647],"split_type":[0,0,0,0,0,0,0,0,0,0,0],"sum_hessian":[2.7E1,2E0,2.5E1,1.9E1,6E0,3E0,1.6E1,1E0,5E0,4E0,1.2E1],"tree_param":{"num_deleted":"6","num_feature":"168","num_nodes":"11","size_leaf_vector":"0"}},{"base_weights":[2.3939803E-1,2.1132606E-1,7.9279673E-1,-0E0,2.28234E-1,2.7766848E-1,9.187435E-2,3.3007145E-1,1.282876E-1],"categories":[],"categories_nodes":[],"categories_segments":[],"categories_sizes":[],"default_left":[1,1,0,0,1,1,0,1,1],"id":9,"left_children":[1,3,-1,-1,5,-1,-1,-1,-1],"loss_changes":[3.0383217E-1,8.979499E-2,0E0,0E0,1.2294972E-1,8.3788395E-2,0E0,0E0,0E0],"parents":[2147483647,0,0,1,1,4,4,5,5],"right_children":[2,4,-1,-1,6,-1,-1,-1,-1],"split_conditions":[8.234002E1,-6.7195766E-2,3.171187E-1,-0E0,3.455342E-1,1.1106739E-1,3.6749743E-2,1.3202858E-1,5.131504E-2],"split_indices":[1,157,0,0,135,140,0,2147483647,2147483647],"split_type":[0,0,0,0,0,0,0,0,0],"sum_hessian":[2.7E1,2.6E1,1E0,2E0,2.4E1,1.7E1,7E0,1.2E1,5E0],"tree_param":{"num_deleted":"2","num_feature":"168","num_nodes":"9","size_leaf_vector":"0"}},{"base_weights":[1.4853096E-1,1.2151097E-1,4.1679218E-1,2.0560586E-1,7.511799E-2,2.2810605E-1,-0E0,1.0082901E-1,1.070748E-2,4.686173E-2,1.6743506E-1,2.6595976E-2,-0E0],"categories":[],"categories_nodes":[],"categories_segments":[],"categories_sizes":[],"default_left":[1,1,0,1,1,1,1,1,1,1,1,1,1],"id":10,"left_children":[1,-1,-1,-1,-1,-1,-1,-1,-1,-1,-1,-1,-1],"loss_changes":[1.375373E-1,6.830859E-2,0E0,2.7012289E-2,1.7057002E-2,0E0,0E0,1.7685175E-2,2.2007525E-3,0E0,0E0,0E0,0E0],"parents":[2147483647,0,0,1,1,3,3,4,4,7,7,8,8],"right_children":[2,-1,-1,-1,-1,-1,-1,-1,-1,-1,-1,-1,-1],"split_conditions":[2.2671876E0,4.8604388E-2,1.6671687E-1,8.224235E-2,3.0047197E-2,9.1242425E-2,-0E0,4.0331606E-2,4.282992E-3,1.8744692E-2,6.697403E-2,1.0638391E-2,-0E0],"split_indices":[99,144,0,2147483647,2147483647,2147483647,2147483647,2147483647,2147483647,2147483647,2147483647,2147483647,2147483647],"split_type":[0,0,0,0,0,0,0,0,0,0,0,0,0],"sum_hessian":[2.7E1,2.5E1,2E0,8E0,1.7E1,7E0,1E0,1.1E1,6E0,7E0,4E0,4E0,2E0],"tree_param":{"num_deleted":"10","num_feature":"168","num_nodes":"13","size_leaf_vector":"0"}},{"base_weights":[9.1388546E-2,2.3099583E-1,6.188514E-2,-0E0,3.244512E-1,1.5651207E-2,1.11338206E-1,5.5315804E-2,-0E0,1.4926003E-1,-0E0,7.989219E-2,-0E0,-9.7085275E-3,-0E0],"categories":[],"categories_nodes":[],"categories_segments":[],"categories_sizes":[],"default_left":[1,1,1,0,0,1,1,1,1,1,1,1,1,1,1],"id":11,"left_children":[1,3,-1,-1,-1,-1,-1,-1,-1,-1,-1,-1,-1,-1,-1],"loss_changes":[8.090432E-2,1.07560396E-1,3.994286E-2,0E0,0E0,1.2396194E-2,3.297615E-2,4.1813888E-3,2.9219204E-4,0E0,0E0,0E0,0E0,0E0,0E0],"parents":[2147483647,0,0,1,1,2,2,5,5,6,6,7,7,8,8],"right_children":[2,4,-1,-1,-1,-1,-1,-1,-1,-1,-1,-1,-1,-1,-1],"split_conditions":[2.3952905E2,2.0360019E2,2.4754057E-2,-0E0,1.2978049E-1,6.260483E-3,4.4535283E-2,2.2126323E-2,-0E0,5.9704013E-2,-0E0,3.1956878E-2,-0E0,-3.883411E-3,-0E0],"split_indices":[55,2,107,0,0,2147483647,2147483647,2147483647,2147483647,2147483647,2147483647,2147483647,2147483647,2147483647,2147483647],"split_type":[0,0,0,0,0,0,0,0,0,0,0,0,0,0,0],"sum_hessian":[2.7E1,4E0,2.3E1,1E0,3E0,1.3E1,1E1,5E0,8E0,7E0,3E0,3E0,2E0,3E0,5E0],"tree_param":{"num_deleted":"10","num_feature":"168","num_nodes":"15","size_leaf_vector":"0"}},{"base_weights":[5.601321E-2,-0E0,8.688091E-2,-2.2244036E-2,4.92125E-2,-0E0,1.1951843E-1,-3.2325145E-2,-0E0,7.019598E-2,-0E0,1.9250336E-3,-0E0,-0E0,1.6123241E-1,1.4184497E-2,-0E0,2.5306898E-1,9.552477E-2],"categories":[],"categories_nodes":[],"categories_segments":[],"categories_sizes":[],"default_left":[1,1,1,1,1,1,1,1,1,1,1,1,1,1,1,1,1,1,1],"id":12,"left_children":[-1,-1,-1,-1,-1,-1,-1,-1,-1,-1,-1,-1,-1,-1,-1,-1,-1,-1,-1],"loss_changes":[5.1598392E-2,8.598987E-3,5.0504863E-2,1.8160068E-3,3.3429544E-4,4.0763293E-6,4.9433634E-2,0E0,0E0,0E0,0E0,0E0,0E0,4.2251992E-4,1.7635927E-2,0E0,0E0,0E0,0E0],"parents":[2147483647,0,0,1,1,2,2,3,3,4,4,5,5,6,6,13,13,14,14],"right_children":[-1,-1,-1,-1,-1,-1,-1,-1,-1,-1,-1,-1,-1,-1,-1,-1,-1,-1,-1],"split_conditions":[2.2405285E-2,-0E0,3.4752365E-2,-8.897615E-3,1.9685E-2,-0E0,4.7807373E-2,-1.2930058E-2,-0E0,2.8078392E-2,-0E0,7.700135E-4,-0E0,-0E0,6.449296E-2,5.673799E-3,-0E0,1.012276E-1,3.820991E-2],"split_indices":[166,2147483647,2147483647,2147483647,2147483647,2147483647,2147483647,2147483647,2147483647,2147483647,2147483647,2147483647,2147483647,2147483647,2147483647,2147483647,2147483647,2147483647,2147483647],"split_type":[0,0,0,0,0,0,0,0,0,0,0,0,0,0,0,0,0,0,0],"sum_hessian":[2.7E1,9E0,1.8E1,7E0,2E0,5E0,1.3E1,5E0,2E0,1E0,1E0,1E0,4E0,4E0,9E0,2E0,2E0,3E0,6E0],"tree_param":{"num_deleted":"18","num_feature":"168","num_nodes":"19","size_leaf_vector":"0"}},{"base_weights":[3.3690266E-2,6.949682E-2,-9.539871E-3,1.2958202E-1,-0E0,-4.35726E-2,4.7434036E-2,-0E0,1.9085911E-1,-1.9853266E-2,3.675191E-2,-0E0,-4.7576312E-2,6.824784E-2,-0E0,8.417946E-3,-0E0],"categories":[],"categories_nodes":[],"categories_segments":[],"categories_sizes":[],"default_left":[1,1,1,1,1,1,1,1,1,1,1,1,1,1,1,1,1],"id":13,"left_children":[-1,-1,-1,-1,-1,-1,-1,-1,-1,-1,-1,-1,-1,-1,-1,-1,-1],"loss_changes":[4.801068E-2,5.825124E-2,2.134319E-2,4.976757E-2,7.153906E-3,6.9245975E-4,2.8063492E-3,1.4880984E-4,0E0,0E0,0E0,0E0,0E0,0E0,0E0,0E0,0E0],"parents":[2147483647,0,0,1,1,2,2,3,3,4,4,5,5,6,6,7,7],"right_children":[-1,-1,-1,-1,-1,-1,-1,-1,-1,-1,-1,-1,-1,-1,-1,-1,-1],"split_conditions":[1.3476106E-2,2.7798727E-2,-3.8159483E-3,5.1832806E-2,-0E0,-1.742904E-2,1.8973615E-2,-0E0,7.634365E-2,-7.941307E-3,1.4700765E-2,-0E0,-1.9030524E-2,2.7299136E-2,-0E0,3.3671786E-3,-0E0],"split_indices":[145,2147483647,2147483647,2147483647,2147483647,2147483647,2147483647,2147483647,2147483647,2147483647,2147483647,2147483647,2147483647,2147483647,2147483647,2147483647,2147483647],"split_type":[0,0,0,0,0,0,0,0,0,0,0,0,0,0,0,0,0],"sum_hessian":[2.7E1,1.6E1,1.1E1,8E0,8E0,8E0,3E0,3E0,5E0,4E0,4E0,1E0,7E0,2E0,1E0,2E0,1E0],"tree_param":{"num_deleted":"16","num_feature":"168","num_nodes":"17","size_leaf_vector":"0"}},{"base_weights":[2.0264573E-2,1.7083685E-1,3.6020924E-3,2.9098472E-2,-5.989644E-2,1.2016302E-1,-5.894173E-3,8.029723E-3,-3.839749E-2,2.3162767E-2,-0E0],"categories":[],"categories_nodes":[],"categories_segments":[],"categories_sizes":[],"default_left":[1,1,1,1,1,1,1,1,1,1,1],"id":14,"left_children":[-1,-1,-1,-1,-1,-1,-1,-1,-1,-1,-1],"loss_changes":[5.0485972E-2,0E0,3.773095E-2,7.236157E-2,0E0,0E0,8.996314E-3,2.2784376E-3,0E0,0E0,0E0],"parents":[2147483647,0,0,2,2,3,3,6,6,7,7],"right_children":[-1,-1,-1,-1,-1,-1,-1,-1,-1,-1,-1],"split_conditions":[8.105829E-3,6.833474E-2,1.4408369E-3,1.1639389E-2,-2.3958577E-2,4.806521E-2,-2.3576692E-3,3.2118892E-3,-1.5358997E-2,9.265107E-3,-0E0],"split_indices":[39,2147483647,2147483647,2147483647,2147483647,2147483647,2147483647,2147483647,2147483647,2147483647,2147483647],"split_type":[0,0,0,0,0,0,0,0,0,0,0],"sum_hessian":[2.7E1,2E0,2.5E1,1.9E1,6E0,6E0,1.3E1,7E0,6E0,5E0,2E0],"tree_param":{"num_deleted":"10","num_feature":"168","num_nodes":"11","size_leaf_vector":"0"}},{"base_weights":[1.2188253E-2,1.6311663E-1,-0E0,2.103468E-2,-6.786978E-2,1.1218968E-1,-1.3938525E-2,3.766321E-5,-4.6370834E-2,1.5215481E-2,-0E0],"categories":[],"categories_nodes":[],"categories_segments":[],"categories_sizes":[],"default_left":[1,1,1,1,1,1,1,1,1,1,1],"id":15,"left_children":[-1,-1,-1,-1,-1,-1,-1,-1,-1,-1,-1],"loss_changes":[5.1848978E-2,0E0,3.6549415E-2,7.0871964E-2,0E0,0E0,1.057146E-2,1.1806953E-3,0E0,0E0,0E0],"parents":[2147483647,0,0,2,2,3,3,6,6,7,7],"right_children":[-1,-1,-1,-1,-1,-1,-1,-1,-1,-1,-1],"split_conditions":[4.8753014E-3,6.524666E-2,-0E0,8.413873E-3,-2.7147913E-2,4.487587E-2,-5.57541E-3,1.5065284E-5,-1.8548334E-2,6.0861926E-3,-0E0],"split_indices":[39,2147483647,2147483647,2147483647,2147483647,2147483647,2147483647,2147483647,2147483647,2147483647,2147483647],"split_type":[0,0,0,0,0,0,0,0,0,0,0],"sum_hessian":[2.7E1,2E0,2.5E1,1.9E1,6E0,6E0,1.3E1,7E0,6E0,5E0,2E0],"tree_param":{"num_deleted":"10","num_feature":"168","num_nodes":"11","size_leaf_vector":"0"}},{"base_weights":[7.33106E-3,1.5847361E-1,-1.359476E-3,1.6185021E-2,-7.266504E-2,1.0739442E-1,-1.8776493E-2,8.785792E-3,1.3089167E-1,-0E0,-5.1166095E-2,1.04358895E-2,-0E0],"categories":[],"categories_nodes":[],"categories_segments":[],"categories_sizes":[],"default_left":[1,1,1,1,1,1,1,1,1,1,1,1,1],"id":16,"left_children":[-1,-1,-1,-1,-1,-1,-1,-1,-1,-1,-1,-1,-1],"loss_changes":[5.1329076E-2,0E0,3.716622E-2,6.9969885E-2,0E0,5.1140785E-5,1.1351122E-2,0E0,0E0,5.554297E-4,0E0,0E0,0E0],"parents":[2147483647,0,0,2,2,3,3,5,5,6,6,9,9],"right_children":[-1,-1,-1,-1,-1,-1,-1,-1,-1,-1,-1,-1,-1],"split_conditions":[2.932424E-3,6.338944E-2,-5.437904E-4,6.4740083E-3,-2.9066017E-2,4.2957768E-2,-7.5105974E-3,3.5143166E-3,5.2356668E-2,-0E0,-2.0466438E-2,4.174356E-3,-0E0],"split_indices":[39,2147483647,2147483647,2147483647,2147483647,2147483647,2147483647,2147483647,2147483647,2147483647,2147483647,2147483647,2147483647],"split_type":[0,0,0,0,0,0,0,0,0,0,0,0,0],"sum_hessian":[2.7E1,2E0,2.5E1,1.9E1,6E0,6E0,1.3E1,2E0,4E0,7E0,6E0,5E0,2E0],"tree_param":{"num_deleted":"12","num_feature":"168","num_nodes":"13","size_leaf_vector":"0"}},{"base_weights":[4.4102827E-3,1.5568161E-1,-4.2793914E-3,1.3268775E-2,-7.554858E-2,1.0451089E-1,-2.168571E-2,1.4447993E-1,2.8912451E-2,-0E0,-5.4049633E-2,7.561777E-3,-0E0],"categories":[],"categories_nodes":[],"categories_segments":[],"categories_sizes":[],"default_left":[1,1,1,1,1,1,1,1,1,1,1,1,1],"id":17,"left_children":[-1,-1,-1,-1,-1,-1,-1,-1,-1,-1,-1,-1,-1],"loss_changes":[5.0829757E-2,0E0,3.7719376E-2,6.942519E-2,0E0,6.7477673E-4,1.1659777E-2,0E0,0E0,2.916204E-4,0E0,0E0,0E0],"parents":[2147483647,0,0,2,2,3,3,5,5,6,6,9,9],"right_children":[-1,-1,-1,-1,-1,-1,-1,-1,-1,-1,-1,-1,-1],"split_conditions":[1.7641131E-3,6.2272646E-2,-1.7117566E-3,5.30751E-3,-3.0219434E-2,4.1804355E-2,-8.674284E-3,5.7791974E-2,1.156498E-2,-0E0,-2.1619854E-2,3.0247108E-3,-0E0],"split_indices":[39,2147483647,2147483647,2147483647,2147483647,2147483647,2147483647,2147483647,2147483647,2147483647,2147483647,2147483647,2147483647],"split_type":[0,0,0,0,0,0,0,0,0,0,0,0,0],"sum_hessian":[2.7E1,2E0,2.5E1,1.9E1,6E0,6E0,1.3E1,3E0,3E0,7E0,6E0,5E0,2E0],"tree_param":{"num_deleted":"12","num_feature":"168","num_nodes":"13","size_leaf_vector":"0"}},{"base_weights":[2.6524954E-3,1.5400133E-1,-6.0366597E-3,1.1513715E-2,-7.7283956E-2,1.02775514E-1,-2.3436539E-2,1.4277256E-1,2.7205067E-2,-0E0,-5.5785008E-2,5.8320733E-3,-0E0],"categories":[],"categories_nodes":[],"categories_segments":[],"categories_sizes":[],"default_left":[1,1,1,1,1,1,1,1,1,1,1,1,1],"id":18,"left_children":[-1,-1,-1,-1,-1,-1,-1,-1,-1,-1,-1,-1,-1],"loss_changes":[5.0528467E-2,0E0,3.8051467E-2,6.9096565E-2,0E0,1.0516569E-3,1.1787545E-2,0E0,0E0,1.7346672E-4,0E0,0E0,0E0],"parents":[2147483647,0,0,2,2,3,3,5,5,6,6,9,9],"right_children":[-1,-1,-1,-1,-1,-1,-1,-1,-1,-1,-1,-1,-1],"split_conditions":[1.0609982E-3,6.1600532E-2,-2.414664E-3,4.605486E-3,-3.0913582E-2,4.1110206E-2,-9.374616E-3,5.7109024E-2,1.08820265E-2,-0E0,-2.2314003E-2,2.3328294E-3,-0E0],"split_indices":[39,2147483647,2147483647,2147483647,2147483647,2147483647,2147483647,2147483647,2147483647,2147483647,2147483647,2147483647,2147483647],"split_type":[0,0,0,0,0,0,0,0,0,0,0,0,0],"sum_hessian":[2.7E1,2E0,2.5E1,1.9E1,6E0,6E0,1.3E1,3E0,3E0,7E0,6E0,5E0,2E0],"tree_param":{"num_deleted":"12","num_feature":"168","num_nodes":"13","size_leaf_vector":"0"}},{"base_weights":[1.5959229E-3,1.5299134E-1,-7.0929206E-3,1.0458781E-2,-7.832705E-2,1.0173241E-1,-2.448893E-2,1.4174627E-1,2.617879E-2,-0E0,-5.6828108E-2,4.7923815E-3,-0E0],"categories":[],"categories_nodes":[],"categories_segments":[],"categories_sizes":[],"default_left":[1,1,1,1,1,1,1,1,1,1,1,1,1],"id":19,"left_children":[-1,-1,-1,-1,-1,-1,-1,-1,-1,-1,-1,-1,-1],"loss_changes":[5.0347086E-2,0E0,3.825078E-2,6.889874E-2,0E0,1.2778938E-3,1.1843378E-2,0E0,0E0,1.1713129E-4,0E0,0E0,0E0],"parents":[2147483647,0,0,2,2,3,3,5,5,6,6,9,9],"right_children":[-1,-1,-1,-1,-1,-1,-1,-1,-1,-1,-1,-1,-1],"split_conditions":[6.383692E-4,6.1196536E-2,-2.8371683E-3,4.1835126E-3,-3.133082E-2,4.0692966E-2,-9.795572E-3,5.669851E-2,1.0471516E-2,-0E0,-2.2731243E-2,1.9169527E-3,-0E0],"split_indices":[39,2147483647,2147483647,2147483647,2147483647,2147483647,2147483647,2147483647,2147483647,2147483647,2147483647,2147483647,2147483647],"split_type":[0,0,0,0,0,0,0,0,0,0,0,0,0],"sum_hessian":[2.7E1,2E0,2.5E1,1.9E1,6E0,6E0,1.3E1,3E0,3E0,7E0,6E0,5E0,2E0],"tree_param":{"num_deleted":"12","num_feature":"168","num_nodes":"13","size_leaf_vector":"0"}},{"base_weights":[9.593189E-4,1.523828E-1,-7.7293366E-3,9.823165E-3,-7.895554E-2,1.01103924E-1,-2.5123013E-2,1.4112793E-1,2.556044E-2,-4.987015E-2,-0E0,-0E0,-5.9328265E-2,9.667928E-4,-0E0],"categories":[],"categories_nodes":[],"categories_segments":[],"categories_sizes":[],"default_left":[1,1,1,1,1,1,1,1,1,1,1,1,1,1,1],"id":20,"left_children":[-1,-1,-1,-1,-1,-1,-1,-1,-1,-1,-1,-1,-1,-1,-1],"loss_changes":[5.023769E-2,0E0,3.837077E-2,6.877945E-2,0E0,1.4141053E-3,1.1876685E-2,0E0,0E0,4.8459303E-3,3.8322223E-6,0E0,0E0,0E0,0E0],"parents":[2147483647,0,0,2,2,3,3,5,5,6,6,9,9,10,10],"right_children":[-1,-1,-1,-1,-1,-1,-1,-1,-1,-1,-1,-1,-1,-1,-1],"split_conditions":[3.8372757E-4,6.095312E-2,-3.0917346E-3,3.9292662E-3,-3.1582218E-2,4.044157E-2,-1.0049205E-2,5.645117E-2,1.0224177E-2,-1.994806E-2,-0E0,-0E0,-2.3731306E-2,3.8671712E-4,-0E0],"split_indices":[39,2147483647,2147483647,2147483647,2147483647,2147483647,2147483647,2147483647,2147483647,2147483647,2147483647,2147483647,2147483647,2147483647,2147483647],"split_type":[0,0,0,0,0,0,0,0,0,0,0,0,0,0,0],"sum_hessian":[2.7E1,2E0,2.5E1,1.9E1,6E0,6E0,1.3E1,3E0,3E0,8E0,5E0,1E0,7E0,4E0,1E0],"tree_param":{"num_deleted":"14","num_feature":"168","num_nodes":"15","size_leaf_vector":"0"}},{"base_weights":[5.773565E-4,1.5201768E-1,-8.111186E-3,9.441795E-3,-7.9332635E-2,1.0072683E-1,-2.5503464E-2,1.4075692E-1,2.518943E-2,-5.0248794E-2,-0E0,-0E0,-5.9706245E-2,5.927664E-4,-0E0],"categories":[],"categories_nodes":[],"categories_segments":[],"categories_sizes":[],"default_left":[1,1,1,1,1,1,1,1,1,1,1,1,1,1,1],"id":21,"left_children":[-1,-1,-1,-1,-1,-1,-1,-1,-1,-1,-1,-1,-1,-1,-1],"loss_changes":[5.017202E-2,0E0,3.8442723E-2,6.870783E-2,0E0,1.4957972E-3,1.1931433E-2,0E0,0E0,4.8583113E-3,1.440625E-6,0E0,0E0,0E0,0E0],"parents":[2147483647,0,0,2,2,3,3,5,5,6,6,9,9,10,10],"right_children":[-1,-1,-1,-1,-1,-1,-1,-1,-1,-1,-1,-1,-1,-1,-1],"split_conditions":[2.309426E-4,6.0807075E-2,-3.2444745E-3,3.776718E-3,-3.1733055E-2,4.0290732E-2,-1.0201386E-2,5.6302767E-2,1.0075772E-2,-2.0099519E-2,-0E0,-0E0,-2.3882499E-2,2.3710656E-4,-0E0],"split_indices":[39,2147483647,2147483647,2147483647,2147483647,2147483647,2147483647,2147483647,2147483647,2147483647,2147483647,2147483647,2147483647,2147483647,2147483647],"split_type":[0,0,0,0,0,0,0,0,0,0,0,0,0,0,0],"sum_hessian":[2.7E1,2E0,2.5E1,1.9E1,6E0,6E0,1.3E1,3E0,3E0,8E0,5E0,1E0,7E0,4E0,1E0],"tree_param":{"num_deleted":"14","num_feature":"168","num_nodes":"15","size_leaf_vector":"0"}},{"base_weights":[3.474189E-4,1.5179789E-1,-8.341056E-3,9.2122145E-3,-7.955964E-2,1.0049982E-1,-2.5732491E-2,1.4053357E-1,2.4966085E-2,-5.0476734E-2,-0E0,-0E0,-5.993378E-2],"categories":[],"categories_nodes":[],"categories_segments":[],"categories_sizes":[],"default_left":[1,1,1,1,1,1,1,1,1,1,1,1,1],"id":22,"left_children":[-1,-1,-1,-1,-1,-1,-1,-1,-1,-1,-1,-1,-1],"loss_changes":[5.0132476E-2,0E0,3.848602E-2,6.86647E-2,0E0,1.5449598E-3,1.1963682E-2,0E0,0E0,4.865622E-3,5.540507E-7,0E0,0E0],"parents":[2147483647,0,0,2,2,3,3,5,5,6,6,9,9],"right_children":[-1,-1,-1,-1,-1,-1,-1,-1,-1,-1,-1,-1,-1],"split_conditions":[1.3896757E-4,6.071916E-2,-3.3364226E-3,3.6848858E-3,-3.1823855E-2,4.019993E-2,-1.0292997E-2,5.6213427E-2,9.986434E-3,-2.0190693E-2,-0E0,-0E0,-2.3973513E-2],"split_indices":[39,2147483647,2147483647,2147483647,2147483647,2147483647,2147483647,2147483647,2147483647,2147483647,2147483647,2147483647,2147483647],"split_type":[0,0,0,0,0,0,0,0,0,0,0,0,0],"sum_hessian":[2.7E1,2E0,2.5E1,1.9E1,6E0,6E0,1.3E1,3E0,3E0,8E0,5E0,1E0,7E0],"tree_param":{"num_deleted":"12","num_feature":"168","num_nodes":"13","size_leaf_vector":"0"}},{"base_weights":[2.0869626E-4,1.5166529E-1,-8.479738E-3,9.073706E-3,-7.9696596E-2,1.00362875E-1,-2.5870666E-2,1.4039883E-1,2.4831342E-2,-5.0614253E-2,-0E0,-0E0,-6.007106E-2],"categories":[],"categories_nodes":[],"categories_segments":[],"categories_sizes":[],"default_left":[1,1,1,1,1,1,1,1,1,1,1,1,1],"id":23,"left_children":[-1,-1,-1,-1,-1,-1,-1,-1,-1,-1,-1,-1,-1],"loss_changes":[5.010861E-2,0E0,3.851214E-2,6.863868E-2,0E0,1.5746132E-3,1.1982882E-2,0E0,0E0,4.869979E-3,2.20233E-7,0E0,0E0],"parents":[2147483647,0,0,2,2,3,3,5,5,6,6,9,9],"right_children":[-1,-1,-1,-1,-1,-1,-1,-1,-1,-1,-1,-1,-1],"split_conditions":[8.347851E-5,6.0666114E-2,-3.3918952E-3,3.6294826E-3,-3.187864E-2,4.014515E-2,-1.0348267E-2,5.6159534E-2,9.932537E-3,-2.0245701E-2,-0E0,-0E0,-2.4028424E-2],"split_indices":[39,2147483647,2147483647,2147483647,2147483647,2147483647,2147483647,2147483647,2147483647,2147483647,2147483647,2147483647,2147483647],"split_type":[0,0,0,0,0,0,0,0,0,0,0,0,0],"sum_hessian":[2.7E1,2E0,2.5E1,1.9E1,6E0,6E0,1.3E1,3E0,3E0,8E0,5E0,1E0,7E0],"tree_param":{"num_deleted":"12","num_feature":"168","num_nodes":"13","size_leaf_vector":"0"}},{"base_weights":[1.250826E-4,1.5158536E-1,-8.563327E-3,8.990223E-3,-7.977914E-2,1.0028032E-1,-2.5953948E-2,1.403176E-1,2.4750125E-2,-5.0697137E-2,-0E0,-0E0,-6.01538E-2],"categories":[],"categories_nodes":[],"categories_segments":[],"categories_sizes":[],"default_left":[1,1,1,1,1,1,1,1,1,1,1,1,1],"id":24,"left_children":[-1,-1,-1,-1,-1,-1,-1,-1,-1,-1,-1,-1,-1],"loss_changes":[5.0094225E-2,0E0,3.8527884E-2,6.862299E-2,0E0,1.5924834E-3,1.199436E-2,0E0,0E0,4.8725884E-3,9.211392E-8,0E0,0E0],"parents":[2147483647,0,0,2,2,3,3,5,5,6,6,9,9],"right_children":[-1,-1,-1,-1,-1,-1,-1,-1,-1,-1,-1,-1,-1],"split_conditions":[5.0033042E-5,6.0634144E-2,-3.4253306E-3,3.596089E-3,-3.1911656E-2,4.011213E-2,-1.0381579E-2,5.612704E-2,9.90005E-3,-2.0278854E-2,-0E0,-0E0,-2.4061522E-2],"split_indices":[39,2147483647,2147483647,2147483647,2147483647,2147483647,2147483647,2147483647,2147483647,2147483647,2147483647,2147483647,2147483647],"split_type":[0,0,0,0,0,0,0,0,0,0,0,0,0],"sum_hessian":[2.7E1,2E0,2.5E1,1.9E1,6E0,6E0,1.3E1,3E0,3E0,8E0,5E0,1E0,7E0],"tree_param":{"num_deleted":"12","num_feature":"168","num_nodes":"13","size_leaf_vector":"0"}},{"base_weights":[7.567453E-5,1.5153812E-1,-8.61272E-3,8.940891E-3,-7.982792E-2,1.0023154E-1,-2.600316E-2,1.4026962E-1,2.4702134E-2,-5.0746117E-2,-0E0,-0E0,-6.020269E-2],"categories":[],"categories_nodes":[],"categories_segments":[],"categories_sizes":[],"default_left":[1,1,1,1,1,1,1,1,1,1,1,1,1],"id":25,"left_children":[-1,-1,-1,-1,-1,-1,-1,-1,-1,-1,-1,-1,-1],"loss_changes":[5.0085723E-2,0E0,3.8537182E-2,6.861372E-2,0E0,1.603052E-3,1.200111E-2,0E0,0E0,4.8741214E-3,4.2245716E-8,0E0,0E0],"parents":[2147483647,0,0,2,2,3,3,5,5,6,6,9,9],"right_children":[-1,-1,-1,-1,-1,-1,-1,-1,-1,-1,-1,-1,-1],"split_conditions":[3.0269812E-5,6.061525E-2,-3.4450882E-3,3.5763567E-3,-3.193117E-2,4.0092617E-2,-1.0401264E-2,5.610785E-2,9.880854E-3,-2.0298447E-2,-0E0,-0E0,-2.4081077E-2],"split_indices":[39,2147483647,2147483647,2147483647,2147483647,2147483647,2147483647,2147483647,2147483647,2147483647,2147483647,2147483647,2147483647],"split_type":[0,0,0,0,0,0,0,0,0,0,0,0,0],"sum_hessian":[2.7E1,2E0,2.5E1,1.9E1,6E0,6E0,1.3E1,3E0,3E0,8E0,5E0,1E0,7E0],"tree_param":{"num_deleted":"12","num_feature":"168","num_nodes":"13","size_leaf_vector":"0"}}]},"name":"gbtree"},"learner_model_param":{"base_score":"5E-1","boost_from_average":"1","num_class":"0","num_feature":"168","num_target":"1"},"objective":{"name":"reg:squarederror","reg_loss_param":{"scale_pos_weight":"1"}}},"version":[1,7,6]}